digraph Tree {
node [shape=box] ;
0 [label="Petal.Length <= 2.35\nentropy = 1.582\nsamples = 109\nvalue = [33, 37, 39]"] ;
1 [label="entropy = 0.0\nsamples = 33\nvalue = [33, 0, 0]"] ;
0 -> 1 [labeldistance=2.5, labelangle=45, headlabel="True"] ;
2 [label="Petal.Width <= 1.75\nentropy = 1.0\nsamples = 76\nvalue = [0, 37, 39]"] ;
0 -> 2 [labeldistance=2.5, labelangle=-45, headlabel="False"] ;
3 [label="Petal.Length <= 5.05\nentropy = 0.384\nsamples = 40\nvalue = [0, 37, 3]"] ;
2 -> 3 ;
4 [label="Sepal.Length <= 5.0\nentropy = 0.176\nsamples = 38\nvalue = [0, 37, 1]"] ;
3 -> 4 ;
5 [label="entropy = 1.0\nsamples = 2\nvalue = [0, 1, 1]"] ;
4 -> 5 ;
6 [label="entropy = 0.0\nsamples = 36\nvalue = [0, 36, 0]"] ;
4 -> 6 ;
7 [label="entropy = 0.0\nsamples = 2\nvalue = [0, 0, 2]"] ;
3 -> 7 ;
8 [label="entropy = 0.0\nsamples = 36\nvalue = [0, 0, 36]"] ;
2 -> 8 ;
}